solver_type L2R_L2LOSS_SVC_DUAL
nr_class 6
label 1 2 3 4 5 6
nr_feature 512
bias -1
w
0 0 0 0 0 0 
0 0 0 0 0 0 
0 0 0 0 0 0 
0 0 0 0 0 0 
-0.06896491791418131 0.03668573985439371 0.2574520958681428 -0.1718056491033972 -0.007436780095360063 -0.08317426469857997 
-0.2240238064214296 -0.02611756875980516 -0.007491001778226794 0.1324599021894241 -0.03695302326117079 0.2660479694688141 
-0.1830521263036897 0.003347516751133671 0.1363758854997497 0.07179633475627872 0.04513949360510647 0.1593573514015669 
0 0 0 0 0 0 
0 0 0 0 0 0 
0 0 0 0 0 0 
0 0 0 0 0 0 
0 0 0 0 0 0 
-0.1634111441226662 0.05950339298731725 0.2268088632335375 -0.04562946607466867 -0.198069715458263 0.05412112024844581 
-0.408282267818702 0.1653341939637366 0.2085552648338248 -0.08030284069295129 -0.127557377277209 0.3012088282407249 
-0.2375084698395318 0.1198911682945954 -0.1915653400147017 0.2690227918859063 0.1757305022538636 0.08910294404667288 
0 0 0 0 0 0 
0 0 0 0 0 0 
0 0 0 0 0 0 
0 0 0 0 0 0 
0 0 0 0 0 0 
0.06480351321180776 0.1013446505976863 -0.005491078372821688 0.1863010127583473 -0.1040587607914407 -0.02432399377852297 
-0.8126201385572159 0.06659506624993382 -0.03300624435148547 -0.01696833323796718 0.03360452668823198 0.3859280756280797 
0.1778841605327194 -0.2095749139410373 -0.1678105872295325 0.1281719151097307 0.06730383473241135 0.007093685667698192 
0 0 0 0 0 0 
0 0 0 0 0 0 
0 0 0 0 0 0 
0 0 0 0 0 0 
0 0 0 0 0 0 
0.331343898315695 0.04319531983991137 -0.2217052653047416 0.1189906041836294 0.1083512896419434 -0.1430980592798552 
0.00822859093342972 -0.04457724509919737 -0.04997370204772693 0.03609505379552998 0.06445181750870999 -0.004148982171039143 
0.1887788868308302 -0.167162929882735 -0.03826812698776878 0.06722297284330538 0.4025337519520773 -0.05315567160781264 
0 0 0 0 0 0 
0 0 0 0 0 0 
0 0 0 0 0 0 
0 0 0 0 0 0 
0 0 0 0 0 0 
-0.1544309470806866 0.06311601725013506 -0.1482603248237345 0.3161631647278921 0.2672594113136222 0.03512995575864963 
0.3765159058135853 -0.1788695952424888 -0.1455388000933534 -0.2131241677327479 0.3713058257299336 -0.09539311680727038 
0.1470168877793482 0.1500182853958108 -0.0627704171295613 0.1156906004235002 0.1213533640975196 -0.21469087066931 
0 0 0 0 0 0 
0 0 0 0 0 0 
0 0 0 0 0 0 
0 0 0 0 0 0 
0 0 0 0 0 0 
-0.2823275260647028 -0.2564700390369436 -0.04099309166401221 0.2986901346732855 -0.01917314302092865 0.2177311791734152 
-0.009556777036574798 -0.04798126175012529 -0.09051561403775099 0.3194020768380236 -0.08623118338022762 0.04363995208949264 
-0.2805293608344703 0.1364379768466366 -0.05212394275150906 -0.01270480133376217 0.01848830510658787 0.2508961994430323 
0 0 0 0 0 0 
0 0 0 0 0 0 
0 0 0 0 0 0 
0 0 0 0 0 0 
0 0 0 0 0 0 
-0.2623296012083301 -0.2862525316882216 0.09442263477463601 0.00148873893936028 -0.09214676046265748 0.363677740943456 
-0.5684201664591128 0.1269489253991825 -0.0549652695650141 0.09777039621818491 -0.1010224528304144 0.1023013920284163 
0.0007261855926842319 0.1979476244113969 0.2518536636490702 -0.3565766011413275 0.1318285374204304 -0.3209899396881514 
0 0 0 0 0 0 
0 0 0 0 0 0 
0 0 0 0 0 0 
0 0 0 0 0 0 
0 0 0 0 0 0 
-0.1702274306660801 0.1320596890023046 0.3690992323015048 -0.1338686466110103 -0.1662769169250275 0.0757844943074297 
-0.1754194963271333 0.1139884925450262 -0.04711326584130825 -0.04949633757932864 -0.01369975339744595 -0.2029339451532487 
0.1083980234840008 0.07253442967366654 0.115905907341723 -0.2111674170317781 0.06525673662497787 -0.1710618832233374 
0 0 0 0 0 0 
0 0 0 0 0 0 
0 0 0 0 0 0 
0 0 0 0 0 0 
0 0 0 0 0 0 
-0.09788576420474772 -0.1529575909747188 0.1746988643410656 0.03041476871056132 0.01501810442253179 0.04066829503172709 
-0.1816192938287923 -0.09007937027285103 0.1826064256921386 0.02173776975369933 0.04553896486159025 -0.002917218728965703 
-0.290163163699183 0.0536127846024039 0.06474058625203347 0.0506428042905235 -0.04758761768213675 -0.03826422920056738 
0 0 0 0 0 0 
0 0 0 0 0 0 
0 0 0 0 0 0 
0 0 0 0 0 0 
0 0 0 0 0 0 
0.08092978827880717 0.1327115538487781 0.05160721799251545 -0.07590499892959755 -0.1736834245533619 -0.03602553814400462 
-0.4680988653552158 -0.428118048554291 0.2153159603464652 0.02228266959671562 -0.004653261890273892 0.3483323818909429 
0.2881809503452399 -7.376246109298899e-05 -0.1205038265587025 0.1550454276196372 -0.05057270898832723 -0.2173784915567859 
0 0 0 0 0 0 
0 0 0 0 0 0 
0 0 0 0 0 0 
0 0 0 0 0 0 
0 0 0 0 0 0 
-0.05256750013568004 -0.1653985942766538 0.02424463157572095 -0.01504149170371603 0.1741829340733367 -0.02357289818344485 
-0.4220477401934935 0.1187045324571523 0.001269827310364679 0.05878786139210582 -0.1696099751342438 0.4248617542138912 
0.1038051823380999 0.1030328188460157 -0.2720821459786627 0.1293316572196095 0.129300708420855 -0.1041442151695799 
0 0 0 0 0 0 
0 0 0 0 0 0 
0 0 0 0 0 0 
0 0 0 0 0 0 
0 0 0 0 0 0 
-0.06476130983372896 -0.01287910277010255 -0.2317555722859694 0.07739968573912405 0.1008595407038256 -0.01627016227302373 
0.0156774914118115 -0.1618201088744726 -0.1096392222592209 0.1116489842618482 0.203105199169571 0.2731918431980599 
-0.03592824475736042 -0.113363760069054 -0.02453487477081907 0.1088851952552771 0.1123789943867811 0.1700422400715604 
0 0 0 0 0 0 
0 0 0 0 0 0 
0 0 0 0 0 0 
0 0 0 0 0 0 
0 0 0 0 0 0 
-0.036825286825933 0.0859246998018675 -0.01922848028903957 -0.2540429807069859 0.2305035776413452 -0.001561676166962174 
0.3938008282259827 -0.3328301570076569 -0.1490894239314046 0.02052206228935122 -0.2612036791349662 0.2610003088892726 
0.04224261271727295 -0.188067596695363 -0.02964580473122492 -0.06388972132375109 -0.01076583704849384 0.1929822410436252 
0 0 0 0 0 0 
0 0 0 0 0 0 
0 0 0 0 0 0 
0 0 0 0 0 0 
0 0 0 0 0 0 
0.157290810180763 0.0776389027402547 0.1166885467692612 -0.0194643038786387 0.0732782790872341 -0.2552072477279081 
-0.1098273856520032 -0.05737216098879074 -0.4142114576986384 0.08390002535694528 0.2911070439280596 0.05391114571753489 
-0.1450607241320499 -0.2966394760310574 0.2683235057712601 0.06355650460240561 -0.5138671286328532 0.3228707736457236 
0 0 0 0 0 0 
0 0 0 0 0 0 
0 0 0 0 0 0 
0 0 0 0 0 0 
0 0 0 0 0 0 
0.1734762290455566 0.1023679375886411 -0.03758860129372532 -0.2214770487684887 0.07625658106848249 -0.1205971612966282 
-0.2349225642412326 0.1950401104550071 -0.1444563083980508 0.1999380272233348 -0.1483756949287073 0.1976153027086441 
-0.1892812688098439 -0.3117969813458195 0.2274672493289515 -0.097374826750842 0.007004262192172307 0.008270432863364163 
0 0 0 0 0 0 
0 0 0 0 0 0 
0 0 0 0 0 0 
0 0 0 0 0 0 
0 0 0 0 0 0 
-0.2588497863671924 0.09462621350459521 0.2256780957791017 -0.0861525509024294 -0.09527838974854792 0.2671543479015104 
-0.1401328325679024 0.07547284651191452 -0.001897930054163267 0.05084313574137875 0.06806583491667059 0.0481326800939778 
0.04978766427799135 0.01174958601702742 0.1318533225858278 -0.05513116312489208 0.02161266124221688 -0.2710543761444983 
0 0 0 0 0 0 
0 0 0 0 0 0 
0 0 0 0 0 0 
0 0 0 0 0 0 
0 0 0 0 0 0 
-0.2262812877713044 -0.06845977283213128 0.03561338646369707 0.0228117330187184 0.03672944684397079 0.2572955830214654 
-0.07637926869591481 -0.04271091824843801 0.136568290430873 -0.02612108189702514 -0.04418997658506317 -0.1253973586088086 
0.3223464289059137 -0.03705074771054375 -0.08365472594920101 -0.1085232312729076 0.1315113311676157 -0.341590002370161 
0 0 0 0 0 0 
0 0 0 0 0 0 
0 0 0 0 0 0 
0 0 0 0 0 0 
0 0 0 0 0 0 
-0.04755749435591916 0.2568414049191161 -0.1908195171100192 0.05469748720337679 -0.05999785142256911 -0.1310142831561186 
-0.3445483302431381 -0.296966091835126 0.2057636341060645 -0.0572473861247302 0.2708988075598017 0.09822988299281948 
0.158547085451954 -0.232256533653934 0.06036234643580707 0.01815095474507413 0.04146284447899425 -0.07643670790350512 
0 0 0 0 0 0 
0 0 0 0 0 0 
0 0 0 0 0 0 
0 0 0 0 0 0 
0 0 0 0 0 0 
-0.2259295412341976 0.2160162584551161 -0.03074591794991451 0.1137185851693799 0.3884636548602088 0.0314452497343582 
0.2116006928024994 -0.2955695533836632 0.1940316530177194 -0.1364509381600775 -0.0267081651432959 -0.2133781709570025 
0.3943415328589078 -0.17591230212784 -0.2798267894379959 0.2058277608869281 -0.3655684259225997 0.02625754449238426 
0 0 0 0 0 0 
0 0 0 0 0 0 
0 0 0 0 0 0 
0 0 0 0 0 0 
0 0 0 0 0 0 
0.06687411147254156 -0.03341807245048699 -0.1706960466859639 -0.1554498779589732 0.2203063950587541 -0.4003974140190402 
0.2276069594902111 -0.4196806664757518 -0.03918782890675032 -0.09172073849393 -0.1868796950396548 0.2208440356221716 
-0.01875793093770266 -0.09238894669400607 0.008025526932410093 0.006008621748695861 -0.2283751276564687 0.3292330364451704 
0 0 0 0 0 0 
0 0 0 0 0 0 
0 0 0 0 0 0 
0 0 0 0 0 0 
0 0 0 0 0 0 
-0.3673978050133762 0.0407478767893814 0.006996246674222728 -0.04834152543680165 0.05564258824265 0.1160048712993733 
-0.05283445744612683 -0.2636777907461346 -0.324326964371778 0.06719276645567693 0.009780237338769638 0.17827497089256 
0.08833167501777614 -0.4213875230325853 0.08148782569319836 0.1620633311113247 -0.05232691992791116 -0.1876519909895573 
0 0 0 0 0 0 
0 0 0 0 0 0 
0 0 0 0 0 0 
0 0 0 0 0 0 
0 0 0 0 0 0 
-0.03204026905870094 -0.01037119801236372 -0.03131606436332066 -0.1356001890699826 -0.07179206003441936 0.03563776097920108 
0.03070689319362847 -0.02847500582975408 -0.2320554640963769 0.1706934577048357 0.2271956175115189 0.04425265091004688 
0.4100177100548181 -0.4535832697916376 0.2128532146471163 -0.2125361675923392 -0.0141704165241039 -0.2668904178770636 
0 0 0 0 0 0 
0 0 0 0 0 0 
0 0 0 0 0 0 
0 0 0 0 0 0 
0 0 0 0 0 0 
0.05759220300488849 0.1627543440950066 0.06592958919398093 -0.1464621431855668 -0.05762014056607399 -0.2680242763108682 
0.1915788168797246 0.1337575866286176 -0.1342177786192477 0.1814631488378371 0.0186887530260488 0.2376225935791756 
-0.0009716963734231035 -0.1165941461539261 -0.06076708261389856 -0.223319203534407 0.045551132319328 0.01544906208226096 
0 0 0 0 0 0 
0 0 0 0 0 0 
0 0 0 0 0 0 
0 0 0 0 0 0 
0 0 0 0 0 0 
-0.3140724724263572 0.1593589385857355 0.1443688492281939 0.05737915282090011 0.0170075088083547 -0.1281338770847543 
0.1135882573180757 0.210835132895508 -0.1461538616831409 0.2789453077172169 0.1281316232677082 -0.1410493983727378 
-0.3137254395866995 0.007261563750524127 0.1459415437732917 -0.2342637845108876 -0.07529846481090813 0.3185952121655072 
0 0 0 0 0 0 
0 0 0 0 0 0 
0 0 0 0 0 0 
0 0 0 0 0 0 
0 0 0 0 0 0 
0.05327218818094041 0.05516914232614119 -0.242563653223305 -0.0336910398568609 0.0005128281914703745 0.02245031405791371 
0.1220035271790973 0.04938680284536646 -0.2227700314290036 0.2700015405618414 0.2518652874548692 -0.168239255240646 
-0.142514619719777 0.1609745250567664 0.1108964755149205 -0.1464420726203657 0.0852073299954116 -0.02422632568169584 
0 0 0 0 0 0 
0 0 0 0 0 0 
0 0 0 0 0 0 
0 0 0 0 0 0 
0 0 0 0 0 0 
0.09438997409712993 0.2349710046919952 -0.2896424477954869 -0.05000876693555369 0.09319464704469775 -0.06682447100635891 
-0.1596482340974872 0.09862944488200591 -0.1338416603106428 0.1566170196198302 0.09334909639807266 -0.02434369660426417 
-0.02456698580595064 -0.2338299955827177 0.0450156227550573 -0.05431244307229691 -0.09382111113250634 -0.1639644301732542 
0 0 0 0 0 0 
0 0 0 0 0 0 
0 0 0 0 0 0 
0 0 0 0 0 0 
0 0 0 0 0 0 
0.006232911587889226 -0.1369264374441843 0.0531956239042892 0.2022120688694569 -0.1254850942810863 -0.1445357363864276 
-0.001591464363352111 0.08391440804923729 0.1701001889615367 -0.4631191828193727 -0.1173385788473023 -0.1129198233266192 
-0.1321148788145045 0.02795057765098278 -0.08641899810762277 -0.1007431864457661 -0.1026862125567806 0.0753576397297685 
0 0 0 0 0 0 
0 0 0 0 0 0 
0 0 0 0 0 0 
0 0 0 0 0 0 
0 0 0 0 0 0 
-0.3442416008739909 -0.1559402926915439 -0.03337222082091071 0.2709189891822754 -0.2602547060428178 -0.1007041899534437 
-0.3202062306772201 -0.09354658351103616 0.01860530657732412 -0.4090741020679955 0.2744545430111215 0.0112274985235885 
-0.5699476672930224 0.1306521676877543 -0.0923327691317064 -0.006678294722586061 -0.01535937087565915 0.01694837246684462 
0 0 0 0 0 0 
0 0 0 0 0 0 
0 0 0 0 0 0 
0 0 0 0 0 0 
0 0 0 0 0 0 
-0.4984606677266151 -0.06969581356337831 0.1061572789213652 -0.1300520922452026 -0.193003672951637 0.2407095214243055 
-0.06829342184915849 0.2138354951310829 -0.3335064479539702 0.1287175672147168 0.09816320502982145 -0.7185040772926718 
-0.2944681811901457 0.06655405014012944 0.1756208868824789 -0.1357639326001385 0.05212771811276105 -0.355246718484226 
0 0 0 0 0 0 
0 0 0 0 0 0 
0 0 0 0 0 0 
0 0 0 0 0 0 
0 0 0 0 0 0 
-0.265029336634858 -0.1423059253142921 -0.02235979562503294 0.05592110975258703 -0.09952970948540463 0.01500083395170872 
-0.1135986823671997 0.06153770358343737 -0.029427779759767 0.06568274466337679 0.06216855401196163 -0.128047422090029 
-0.03524913790049567 -0.1160859760079612 0.07618409099553791 -0.01741401586198145 -0.03669856388378145 -0.2380937304007266 
0 0 0 0 0 0 
0 0 0 0 0 0 
0 0 0 0 0 0 
0 0 0 0 0 0 
0 0 0 0 0 0 
-0.06646649064020206 0.372467542517082 -0.3109017431150758 0.310929108586105 -0.07573069635066217 -0.08085108792545929 
0.2141402111948229 0.1795209601004426 0.03265217311734986 0.07492066227443489 -0.2056853740745151 -0.1117888333492095 
-0.1652896807740672 0.01547804899430748 -0.118986462078507 -0.01983794241663572 0.1556878571673283 0.3521564962140386 
0 0 0 0 0 0 
0 0 0 0 0 0 
0 0 0 0 0 0 
0 0 0 0 0 0 
0 0 0 0 0 0 
-0.3325676427025644 0.1985261450797006 -0.08912379582080603 -0.07857934957129087 -0.06110749236558397 0.09412832760866799 
-0.07197647463365792 -0.04072047776785027 -0.1314157737155097 0.04337791862699837 -0.003875210476823716 -0.0245233105860505 
-0.3010676236187128 0.1988674084439975 -0.06714536216167612 -0.03878690736305582 0.1024890661104711 0.04676074107042126 
0 0 0 0 0 0 
0 0 0 0 0 0 
0 0 0 0 0 0 
0 0 0 0 0 0 
0 0 0 0 0 0 
-0.4206335253171455 -0.0002983025654751695 -0.1237236378920313 -0.2192357534550046 0.2352622529260161 0.1264072341555586 
0.1801707414765465 0.09452075332183907 -0.1514473380960327 0.2807586425685872 -0.1451161989506155 -0.09362102022205342 
-0.2720963831830312 0.1190453450811893 -0.02694900725192351 0.1033376789379667 0.003224051613540762 0.1287421209366006 
0 0 0 0 0 0 
0 0 0 0 0 0 
0 0 0 0 0 0 
0 0 0 0 0 0 
0 0 0 0 0 0 
0.08010829081578281 0.3274037948913159 -0.2276636056345802 -0.1276743409955799 -0.3041788181598761 0.16983907788485 
-0.09548564196401052 -0.1313212088728438 0.007625699642750823 0.1617625449075932 -0.02179307928868669 -0.15366854602718 
-0.1369243646291842 -0.1033079890831487 -0.02568344054873769 -0.05058730064823625 0.02169706180378866 0.2037412616737576 
0 0 0 0 0 0 
0 0 0 0 0 0 
0 0 0 0 0 0 
0 0 0 0 0 0 
0 0 0 0 0 0 
-0.1088569226943221 -0.224129038752303 0.03061779011328169 -0.1521939604535862 -0.1137705001704548 -0.07881674588291519 
-0.4581727235906387 0.1153334315782958 -0.1709971476443216 0.0296784421030416 -0.08446633930475321 -0.2360278736528331 
-0.2294383122082722 0.1956344662350857 0.1567203926101794 -0.002506850466187025 -0.1696493367758073 -0.03981926553645392 
0 0 0 0 0 0 
0 0 0 0 0 0 
0 0 0 0 0 0 
0 0 0 0 0 0 
0 0 0 0 0 0 
-0.7307924673357039 -0.1239124862053015 0.1360992993882916 -0.3777784930723998 -0.03202529555228764 -0.0889280972698997 
-0.4067270568201755 0.2333402655492904 0.006930573816134198 -0.02806856178173912 -0.3189184240917253 -0.280525366908372 
-0.004201687542427918 0.05122160940424921 -0.03904044756200847 -0.02591697553249701 -0.1733382524891424 -0.1650725033931734 
0 0 0 0 0 0 
0 0 0 0 0 0 
0 0 0 0 0 0 
0 0 0 0 0 0 
0 0 0 0 0 0 
-0.1603460457156238 -0.1222449133530695 0.03385619492719278 -0.1951625339847472 0.09063571998786531 -0.180516376584532 
0.156458312255266 -0.01234000207406265 -0.03328145455704051 -0.04080140478109003 -0.1867015756532006 -0.1761849898130637 
-0.5204987597677803 0.05544578446553022 -0.04638994077406426 0.1579918027127697 -0.02808388645935638 -0.1439288540386049 
0 0 0 0 0 0 
0 0 0 0 0 0 
0 0 0 0 0 0 
0 0 0 0 0 0 
0 0 0 0 0 0 
0.1510230836794976 -0.09840509953604286 -0.02531904501364258 -0.3340132768300487 0.05294027765876785 -0.1166659162860516 
-0.5249023990623505 0.2142569930000486 -0.009270551042718241 0.06261129932930157 -0.1009640501938412 -0.1974146844657317 
0.05785851996550189 -0.1272787818399638 -0.0008470878680390028 0.232646461561412 -0.09791663510522786 -0.1600200550388263 
0 0 0 0 0 0 
0 0 0 0 0 0 
0 0 0 0 0 0 
0 0 0 0 0 0 
0 0 0 0 0 0 
0.002257546099321794 0.09762231123620432 -0.2171107352471101 -0.1479325070157529 -0.1570446172533105 0.1532468199114778 
-0.01467116076864987 0.1957733793106125 0.1014326082477745 -0.1165990672682739 -0.1688843543611303 -0.1032935210845858 
-0.07212819625461081 -0.02986225001330008 -0.2420587444054212 0.3044046379100816 0.172358380853152 -0.3177065560126526 
0 0 0 0 0 0 
0 0 0 0 0 0 
0 0 0 0 0 0 
0 0 0 0 0 0 
0 0 0 0 0 0 
0.08779244246839642 0.1163748313396723 -0.1657444047103392 -0.03996432905827745 0.09475231625030835 -0.1192883993550512 
0.1801609393883876 0.2487791364422751 0.05388284975422662 -0.2027035431656497 0.08032935680484256 -0.4013579052458452 
0.0079922140773697 -0.08104678528709547 -0.2851504775831112 0.4166876214400688 0.1494296374990202 0.07984602074878197 
0 0 0 0 0 0 
0 0 0 0 0 0 
0 0 0 0 0 0 
0 0 0 0 0 0 
0 0 0 0 0 0 
0.01581970577154824 0.2464461319045754 -0.006440368987485458 0.05445779222890034 -0.0675408431252299 0.04501986007583336 
-0.4383790659318222 0.1830729492288836 -0.03999687794898214 -0.08621049408778984 -0.04688530768100806 0.05799976524106806 
0.3154380200267952 0.1019442560987915 -0.0006802630943424036 0.03860406477723636 0.006748169522951488 -0.269486790475884 
0 0 0 0 0 0 
0 0 0 0 0 0 
0 0 0 0 0 0 
0 0 0 0 0 0 
0 0 0 0 0 0 
0.3592955613787497 0.355821746457166 0.03480357110388588 -0.2543619953042695 -0.4061837101668552 -0.2815626200835268 
0.1750212662550381 -0.1904754265657078 0.0859891623648483 0.05977667847130799 -0.03942588761695907 6.732047979648363e-05 
0.01799871099298151 -0.2540369931422292 0.00746294121709733 -0.1364572160405365 0.03685480928050132 0.1225875631740392 
0 0 0 0 0 0 
0 0 0 0 0 0 
0 0 0 0 0 0 
0 0 0 0 0 0 
0 0 0 0 0 0 
0.09739388639878405 0.07061118668388069 0.06199517734414608 -0.2389103497992137 -0.1567699928448254 -0.09977870077110874 
0.07021378793284483 -0.06373086229900377 -0.03996413279469161 0.03692648029220797 -0.08939290871670511 -0.2411648685423743 
-0.1620662850225065 -0.04096736857190482 0.1593704794550242 -0.1624897217217839 -0.1152127167966429 -0.3015160669532012 
0 0 0 0 0 0 
0 0 0 0 0 0 
0 0 0 0 0 0 
0 0 0 0 0 0 
0 0 0 0 0 0 
0.1692913617125407 -0.2825892615533981 0.05048280211383686 -0.5397910170176693 0.1696570739415052 0.1890471045595928 
0.06221951091348858 0.1168882811064363 -0.106495297706439 0.3311290605776629 -0.217388177018544 -0.4653610247144956 
-0.165945294050109 -0.05659253982938783 -0.03885622842187385 0.3481139845816374 -0.136438249908083 -0.1928345242761209 
0 0 0 0 0 0 
0 0 0 0 0 0 
0 0 0 0 0 0 
0 0 0 0 0 0 
0 0 0 0 0 0 
-0.02307299029724888 0.01737773087678061 -0.07657702004172409 -0.3375159244549274 -0.1190828926003863 -0.05136054231342715 
0.03409276641265137 -0.0003793673751910274 0.02961658534570526 0.2113419784250206 -0.1306180916982545 -0.3085143167230176 
-0.003539757308244898 -0.001933918439141024 -0.03959598456007972 0.1886561217510885 0.1296171342542849 -0.2553893943403 
0 0 0 0 0 0 
0 0 0 0 0 0 
0 0 0 0 0 0 
0 0 0 0 0 0 
0 0 0 0 0 0 
0.2747692684586288 0.1954057980457318 -0.1061135917676543 -0.08824416604171942 -0.3859194621814016 0.1473714789594551 
0.03152724451039062 -0.06578842176275725 0.1180816653993691 0.0439393822560455 -0.04492784126073227 -0.2772277737377729 
0.03341069251174834 -0.1598815157919385 0.1681639997392921 -0.02009869145266363 0.04554317407483357 -0.1782129667043592 
0 0 0 0 0 0 
0 0 0 0 0 0 
0 0 0 0 0 0 
0 0 0 0 0 0 
0 0 0 0 0 0 
0.1353855831309539 0.09421026751538543 -0.2445129975598756 -0.4545219047906376 0.05261562603983377 0.1558522980794536 
0.5738485785121125 -0.1482321158726376 0.07288188754925053 0.01901445169582271 -0.1549947958350884 -0.1703403512964412 
-0.1712601808406813 0.08384109830178021 -0.005463245496300012 0.127875247976231 -0.02090673293491899 0.05698310010006265 
0 0 0 0 0 0 
0 0 0 0 0 0 
0 0 0 0 0 0 
0 0 0 0 0 0 
0 0 0 0 0 0 
0.1297120771057976 0.1776584160781759 -0.09431586276980551 0.1209013854964761 0.001311533346417676 -0.2402206843841959 
0.002193560076396005 -0.005761085321156429 0.01193268808045682 -0.02567468476033598 -0.07817682493486149 0.04998591894474866 
0.02291805171923032 0.01425719932202625 0.07175505500509825 -0.01136690261761569 0.03842578529489569 0.1485356210716167 
0 0 0 0 0 0 
0 0 0 0 0 0 
0 0 0 0 0 0 
0 0 0 0 0 0 
0 0 0 0 0 0 
0.05709011184304443 -0.02392931439022556 -0.09795148733363844 0.1122760721656466 0.01657636200742512 0.1556552612864775 
0.007020728260079508 0.2400081826894855 -0.06397148645832969 -0.2768668402096182 -0.1149774864693867 -0.07696800006578135 
-0.137355800566351 -0.05109413504973779 0.1039256466986213 0.07200744174094764 -0.1610699728993963 -0.06725383243525028 
0 0 0 0 0 0 
0 0 0 0 0 0 
0 0 0 0 0 0 
0 0 0 0 0 0 
0 0 0 0 0 0 
0.2741442737349691 -0.05512205286895129 0.08564854153106881 -0.1695440590540105 -0.2313603244467583 0.01477131297621515 
0.4085552455655665 -0.129856426409097 -0.03605592772055521 -0.0335261797380516 -0.3040011108552741 0.06364180471409429 
0.2639855404510256 -0.2367201397238442 0.07507087294825751 0.01557050148258027 -0.2044484136609561 0.003079187302877033 
0 0 0 0 0 0 
0 0 0 0 0 0 
0 0 0 0 0 0 
0 0 0 0 0 0 
0 0 0 0 0 0 
-0.0615260683051163 -0.1185249628404138 -0.04549155671602815 -0.1821988972035989 0.03096847830044374 0.03585859040204451 
0.5695875682301581 -0.2854649900376117 -0.06856917367674863 0.1332339127420139 -0.3056613017533459 0.01716828517013394 
0.1597435281291336 -0.2157251439914658 0.03802389003940146 0.258589907216637 -0.08251577206731017 -0.06895958469909544 
0 0 0 0 0 0 
0 0 0 0 0 0 
0 0 0 0 0 0 
0 0 0 0 0 0 
0 0 0 0 0 0 
0.1054578799447099 -0.05352340294820782 -0.03538595798893967 0.01826776685567971 0.1301266805382215 0.0201474741195409 
0.5456828237379211 -0.1995846914323879 0.009010992192611214 -0.1206018555309162 -0.3230776153733103 0.1229955615045297 
0.1623594427302727 -0.1437445970029178 -0.01721106951706498 0.1137677499355705 -0.1904751110746627 0.07535633392131397 
0 0 0 0 0 0 
0 0 0 0 0 0 
0 0 0 0 0 0 
0 0 0 0 0 0 
0 0 0 0 0 0 
-0.001442365410419528 -0.08755234385264982 -0.1078774071102831 -0.3278106505074776 0.2993763273582846 0.1616987471937415 
0.4998658180149518 -0.2220280076894657 -0.2302314308797176 0.2910128040344301 -0.2407709449004053 -0.05415391210884551 
0.1650514675692317 0.07329227932461707 0.2019571389548763 0.3876812725494786 -0.4376529428969871 -0.106990843521978 
0 0 0 0 0 0 
0 0 0 0 0 0 
0 0 0 0 0 0 
0 0 0 0 0 0 
0 0 0 0 0 0 
0.7265239802692277 0.2546392723663689 -0.0792687884252995 -0.4835905201215776 -0.4079398199483555 -0.07496268023086737 
0.316622840447104 -0.4475900492322905 0.116009297639307 0.4005088736932124 -0.303419153966319 -0.2195936484568365 
-0.1634476650254787 0.07101255339319135 0.1350218783008518 0.2824223676779286 0.09442228851800384 -0.007286373052319606 
0 0 0 0 0 0 
0 0 0 0 0 0 
0 0 0 0 0 0 
0 0 0 0 0 0 
0 0 0 0 0 0 
0.4481548074135737 -0.1550402055675931 -0.07516550388145575 -0.3025118077393602 -0.01268708295057958 -0.02524368888938176 
-0.2100331949807105 -0.1407998957246602 0.03989506900842583 0.1764594871758555 -0.3822295660994139 0.2108382312246939 
-0.01030408515553235 0.1927595594397059 0.1849368070583483 0.02177858405883502 -0.01923490891542491 -0.2721238085587405 
0 0 0 0 0 0 
0 0 0 0 0 0 
0 0 0 0 0 0 
0 0 0 0 0 0 
0 0 0 0 0 0 
0.03408577956645174 0.1236639891233042 -0.06505038942031113 0.1638777900124658 -0.1484020263950589 -0.208435201128987 
0.01159587941791611 0.01650438177828276 -0.003176258074466001 -0.111198352605709 -0.1123856362023218 0.09973481210647608 
0.09750011459230935 0.02127827370238393 0.1275988883672454 -0.01153571587480463 -0.1217239036788268 -0.0942003541457886 
0 0 0 0 0 0 
0 0 0 0 0 0 
0 0 0 0 0 0 
0 0 0 0 0 0 
0 0 0 0 0 0 
0.06562749878609221 -0.1374217428491103 -0.01659977292320466 -0.004486622724898656 0.006110877772656446 0.1079065927705485 
0.1709167749376131 0.04120836292819973 -0.02008908599844847 0.1068541523667416 0.08213678961753992 -0.1333163466912471 
0.1115952278988416 -0.1439629209603267 -0.0004369143596378978 0.08386663490940097 -0.04421209995483607 0.03941119348817065 
0 0 0 0 0 0 
0 0 0 0 0 0 
0 0 0 0 0 0 
0 0 0 0 0 0 
0 0 0 0 0 0 
0.0794207023812753 -0.05736306480722034 -0.01705813309974276 -0.1261250414987153 0.07664146253761943 0.1872134074450874 
0.4614344390241538 0.0630792496834177 -0.03348184951108057 -0.08456660927809415 -0.03250339600102875 -0.105925617373499 
0.226965825971182 -0.3940475757731774 -0.0357477435383633 -0.01133376310247462 0.08890774119498697 0.08348954568421417 
0 0 0 0 0 0 
0 0 0 0 0 0 
0 0 0 0 0 0 
0 0 0 0 0 0 
0 0 0 0 0 0 
0.2100625410035199 -0.1899864789959652 -0.2852982439291306 0.01459830007863031 0.06317639019618143 0.2201700092111342 
0.09206395955758233 0.1786859820263094 0.01529305724394278 -0.03267059133632785 0.09627498356063542 0.09075305197122228 
0.08293251570710125 -0.3154367494683428 -0.1153468424537664 -0.2257453529919443 0.1187595960085541 0.2694663834147508 
0 0 0 0 0 0 
0 0 0 0 0 0 
0 0 0 0 0 0 
0 0 0 0 0 0 
0 0 0 0 0 0 
0.03858245013780176 -0.07471662160135861 -0.302492061652445 -0.01596257186743874 0.119582282140379 0.494332324510635 
-0.04417747195970596 -0.0461397488618364 -0.00749622820660775 -0.007522329216846835 0.09869811441919007 0.04406538377491927 
-0.08460863042996296 0.06900005618361371 -0.03276845737068858 -0.2555573461381671 0.2708418884126552 0.01555534248209339 
0 0 0 0 0 0 
0 0 0 0 0 0 
0 0 0 0 0 0 
0 0 0 0 0 0 
0 0 0 0 0 0 
-0.2188880804565039 0.05023481282396162 -0.0494091312407131 -0.1094471744347584 -0.1048832402443272 0.4523236390552147 
0.4871929392707738 -0.08986657924724996 -0.2269633543419081 -0.0453421027396909 0.1641365755107745 -0.04366753207120183 
0.08917469892954176 0.1133696778121 -0.03753437873433369 -0.06232646523469611 0.1459141113118121 -0.1474719356941516 
0 0 0 0 0 0 
0 0 0 0 0 0 
0 0 0 0 0 0 
0 0 0 0 0 0 
0 0 0 0 0 0 
0.4092428173447463 -0.05837011398815213 -0.03948289770502981 -0.009923999784071616 -0.02921591409314134 0.1040318210880816 
-0.3839927039561117 -0.12333157830903 -0.1556897449233649 0.1347664641340913 0.3712364885793243 0.1901601821998708 
0.2505733876759183 0.02874352119533586 0.06109777147106837 -0.1855331334310254 -0.128716694110222 -0.05889431586539378 
0 0 0 0 0 0 
0 0 0 0 0 0 
0 0 0 0 0 0 
0 0 0 0 0 0 
0 0 0 0 0 0 
0.1648620025492359 0.02527927430521473 0.1982123440275639 -0.08663036778841864 -0.0831310725133467 -0.1194411767338745 
-0.1844703414451819 -0.1834415307624997 -0.05392461175430269 0.08991297914096373 0.02870384799677479 0.3106442643452207 
0.2247279604645828 0.07330359194876007 0.06913337876378835 0.02297709198091138 -0.0822598502593189 -0.2429348060750348 
0 0 0 0 0 0 
0 0 0 0 0 0 
0 0 0 0 0 0 
0 0 0 0 0 0 
0 0 0 0 0 0 
-0.2129594692597469 0.1181362862252365 0.04616313572054531 0.1916280702869657 -0.1565006424928827 -0.3341495963140451 
-0.2395707590333513 -0.02026020768516415 -0.05717795068753657 0.1033105112045031 0.1220954971228858 -0.08445140656941851 
-0.2760053869823398 -0.07293909068899819 0.2031061408861186 0.04283926174761903 -0.1333633708838008 -0.08534997332257355 
0 0 0 0 0 0 
